Model witn 17.0M parametems 
[[-0.01125064 -0.01205563 -0.00285608 ... -0.01920076  0.01820327
  -0.01577679]
 [-0.02521925  0.00066364 -0.00045324 ...  0.0042455   0.00185209
   0.00371121]
 [ 0.01488259  0.00819371  0.00348764 ... -0.00417034  0.00013343
  -0.02112529]
 ...
 [-0.00407389  0.01670621  0.00471851 ...  0.01031136 -0.00382651
  -0.01885968]
 [-0.00880479  0.00128617 -0.00683098 ...  0.00838776 -0.0112256
  -0.00948004]
 [-0.01205982 -0.00425775 -0.01116313 ...  0.00151322 -0.01205413
   0.02874557]] 
[[0. 0. 0. ... 0. 0. 0.]] 
[[-8.77902783e-05  1.42335567e-03 -3.72486369e-03 ...  2.41098013e-03
  -2.24041839e-02 -4.53697159e-03]
 [ 1.04383484e-02  9.43955540e-03  4.90939853e-04 ... -1.79336399e-03
   1.03055612e-02 -1.06168470e-02]
 [ 9.01270451e-03  1.15428612e-02  1.05825995e-03 ...  1.22168573e-03
   1.70598340e-02  9.70283839e-03]
 ...
 [-8.80676574e-04  9.26824351e-04 -1.04157642e-03 ...  5.22330951e-03
  -3.97699122e-03  6.43791654e-03]
 [-3.85542824e-03  1.35238164e-02  5.24233031e-03 ...  1.98049100e-04
  -4.51505332e-03  1.34034617e-02]
 [ 2.02316543e-03  4.05055433e-03  1.14267292e-02 ... -3.52137384e-03
  -1.25955801e-02  5.17536238e-03]] 
[[0. 0. 0. 0. 0. 0. 0. 0. 0. 0. 0. 0. 0. 0. 0. 0. 0. 0. 0. 0. 0. 0. 0. 0.
  0. 0. 0. 0. 0. 0. 0. 0. 0. 0. 0. 0. 0. 0. 0. 0. 0. 0. 0. 0. 0. 0. 0. 0.
  0. 0. 0. 0. 0. 0. 0. 0. 0. 0. 0. 0. 0. 0. 0. 0.]] 
[[ 0.00265027]
 [-0.00964593]
 [-0.0125278 ]
 [-0.00760794]
 [-0.0083727 ]
 [ 0.0041086 ]
 [-0.02708416]
 [-0.00447303]
 [-0.00242351]
 [ 0.00441785]
 [-0.00055735]
 [-0.01982368]
 [-0.01161254]
 [ 0.00448678]
 [ 0.00730715]
 [ 0.01263664]
 [ 0.00171398]
 [-0.00654442]
 [ 0.00819791]
 [-0.00894116]
 [ 0.01496871]
 [-0.00452759]
 [-0.00918335]
 [ 0.01708496]
 [-0.01159906]
 [-0.00257957]
 [ 0.01638261]
 [ 0.00806349]
 [ 0.0154146 ]
 [-0.00690686]
 [ 0.00562546]
 [ 0.00785239]
 [ 0.01026034]
 [ 0.01057665]
 [ 0.01118411]
 [ 0.00534825]
 [-0.02053951]
 [ 0.00917085]
 [-0.00786133]
 [ 0.00600598]
 [ 0.00458564]
 [ 0.00320811]
 [ 0.01269394]
 [-0.00970639]
 [-0.00287611]
 [-0.00259329]
 [ 0.00991078]
 [ 0.00550312]
 [ 0.00488918]
 [-0.00237763]
 [ 0.00022585]
 [-0.01470761]
 [ 0.00971585]
 [-0.0114466 ]
 [ 0.00975111]
 [ 0.00144792]
 [ 0.00115629]
 [ 0.00375814]
 [-0.00188213]
 [-0.00698836]
 [ 0.01127053]
 [ 0.00716835]
 [ 0.00019745]
 [ 0.00023872]] 
[[0.]] 
